<?xml version="1.0"?>
<opencv_storage>
<cascade>
  <stageType>BOOST</stageType>
  <featureType>HAAR</featureType>
  <height>64</height>
  <width>64</width>
  <stageParams>
    <boostType>GAB</boostType>
    <minHitRate>9.9500000476837158e-01</minHitRate>
    <maxFalseAlarm>5.0000000000000000e-01</maxFalseAlarm>
    <weightTrimRate>9.4999999999999996e-01</weightTrimRate>
    <maxDepth>1</maxDepth>
    <maxWeakCount>100</maxWeakCount></stageParams>
  <featureParams>
    <maxCatCount>0</maxCatCount>
    <featSize>1</featSize>
    <mode>BASIC</mode></featureParams>
  <stageNum>15</stageNum>
  <stages>
    <!-- stage 0 -->
    <_>
      <maxWeakCount>3</maxWeakCount>
      <stageThreshold>-2.4041479825973511e-01</stageThreshold>
      <weakClassifiers>
        <_>
          <internalNodes>
            0 -1 9 2.3916671052575111e-03</internalNodes>
          <leafValues>
            -6.3380283117294312e-01 9.6330273151397705e-01</leafValues></_>
        <_>
          <internalNodes>
            0 -1 21 3.0439568217843771e-04</internalNodes>
          <leafValues>
            -5.3329551219940186e-01 9.6193808317184448e-01</leafValues></_>
        <_>
          <internalNodes>
            0 -1 50 -1.6176017234101892e-03</internalNodes>
          <leafValues>
            9.2668354511260986e-01 -5.5437982082366943e-01</leafValues></_></weakClassifiers></_>
    <!-- stage 1 -->
    <_>
      <maxWeakCount>3</maxWeakCount>
      <stageThreshold>-2.1089941263198853e-01</stageThreshold>
      <weakClassifiers>
        <_>
          <internalNodes>
            0 -1 7 -7.4305944144725800e-04</internalNodes>
          <leafValues>
            9.2523366212844849e-01 -5.3424656391143799e-01</leafValues></_>
        <_>
          <internalNodes>
            0 -1 17 -8.3162717055529356e-04</internalNodes>
          <leafValues>
            8.5459798574447632e-01 -5.8423060178756714e-01</leafValues></_>
        <_>
          <internalNodes>
            0 -1 51 -2.0261134486645460e-03</internalNodes>
          <leafValues>
            9.4369208812713623e-01 -5.3125077486038208e-01</leafValues></_></weakClassifiers></_>
    <!-- stage 2 -->
    <_>
      <maxWeakCount>3</maxWeakCount>
      <stageThreshold>-4.0051281452178955e-01</stageThreshold>
      <weakClassifiers>
        <_>
          <internalNodes>
            0 -1 43 3.4322505816817284e-03</internalNodes>
          <leafValues>
            -5.4929578304290771e-01 9.0825688838958740e-01</leafValues></_>
        <_>
          <internalNodes>
            0 -1 22 -1.5053751412779093e-03</internalNodes>
          <leafValues>
            8.2263225317001343e-01 -5.7622456550598145e-01</leafValues></_>
        <_>
          <internalNodes>
            0 -1 0 -5.5197607725858688e-03</internalNodes>
          <leafValues>
            8.1525248289108276e-01 -6.7384928464889526e-01</leafValues></_></weakClassifiers></_>
    <!-- stage 3 -->
    <_>
      <maxWeakCount>3</maxWeakCount>
      <stageThreshold>-3.6504757404327393e-01</stageThreshold>
      <weakClassifiers>
        <_>
          <internalNodes>
            0 -1 52 -2.7268151752650738e-03</internalNodes>
          <leafValues>
            9.4117647409439087e-01 -4.6153846383094788e-01</leafValues></_>
        <_>
          <internalNodes>
            0 -1 11 -3.8621444255113602e-03</internalNodes>
          <leafValues>
            7.2360002994537354e-01 -7.3050272464752197e-01</leafValues></_>
        <_>
          <internalNodes>
            0 -1 37 1.2593416613526642e-04</internalNodes>
          <leafValues>
            -5.7572132349014282e-01 9.1264861822128296e-01</leafValues></_></weakClassifiers></_>
    <!-- stage 4 -->
    <_>
      <maxWeakCount>3</maxWeakCount>
      <stageThreshold>-1.4435523748397827e-01</stageThreshold>
      <weakClassifiers>
        <_>
          <internalNodes>
            0 -1 3 -2.3239050060510635e-03</internalNodes>
          <leafValues>
            9.7959184646606445e-01 -4.3902438879013062e-01</leafValues></_>
        <_>
          <internalNodes>
            0 -1 32 4.9301481340080500e-04</internalNodes>
          <leafValues>
            -5.3313207626342773e-01 8.9912742376327515e-01</leafValues></_>
        <_>
          <internalNodes>
            0 -1 23 3.1029523233883083e-04</internalNodes>
          <leafValues>
            -5.3598082065582275e-01 8.2780122756958008e-01</leafValues></_></weakClassifiers></_>
    <!-- stage 5 -->
    <_>
      <maxWeakCount>3</maxWeakCount>
      <stageThreshold>-3.8895183801651001e-01</stageThreshold>
      <weakClassifiers>
        <_>
          <internalNodes>
            0 -1 19 -1.1083839926868677e-03</internalNodes>
          <leafValues>
            8.4210526943206787e-01 -5.4545456171035767e-01</leafValues></_>
        <_>
          <internalNodes>
            0 -1 1 -2.9360041953623295e-03</internalNodes>
          <leafValues>
            8.9387279748916626e-01 -4.2044943571090698e-01</leafValues></_>
        <_>
          <internalNodes>
            0 -1 34 -5.2669865544885397e-04</internalNodes>
          <leafValues>
            7.0440888404846191e-01 -7.3737007379531860e-01</leafValues></_></weakClassifiers></_>
    <!-- stage 6 -->
    <_>
      <maxWeakCount>3</maxWeakCount>
      <stageThreshold>-1.4531968533992767e-01</stageThreshold>
      <weakClassifiers>
        <_>
          <internalNodes>
            0 -1 14 8.4711704403162003e-03</internalNodes>
          <leafValues>
            -3.7209302186965942e-01 9.7872340679168701e-01</leafValues></_>
        <_>
          <internalNodes>
            0 -1 13 -2.8558273334056139e-03</internalNodes>
          <leafValues>
            8.3568441867828369e-01 -5.0268363952636719e-01</leafValues></_>
        <_>
          <internalNodes>
            0 -1 27 -4.4421125203371048e-03</internalNodes>
          <leafValues>
            8.6224728822708130e-01 -6.0891109704971313e-01</leafValues></_></weakClassifiers></_>
    <!-- stage 7 -->
    <_>
      <maxWeakCount>3</maxWeakCount>
      <stageThreshold>-3.0132511258125305e-01</stageThreshold>
      <weakClassifiers>
        <_>
          <internalNodes>
            0 -1 49 -1.2353726197034121e-03</internalNodes>
          <leafValues>
            8.2300883531570435e-01 -4.9253731966018677e-01</leafValues></_>
        <_>
          <internalNodes>
            0 -1 5 -1.0134760290384293e-02</internalNodes>
          <leafValues>
            9.3190723657608032e-01 -4.1992726922035217e-01</leafValues></_>
        <_>
          <internalNodes>
            0 -1 45 -5.9388298541307449e-04</internalNodes>
          <leafValues>
            6.9033861160278320e-01 -7.0440667867660522e-01</leafValues></_></weakClassifiers></_>
    <!-- stage 8 -->
    <_>
      <maxWeakCount>3</maxWeakCount>
      <stageThreshold>-2.0721803605556488e-01</stageThreshold>
      <weakClassifiers>
        <_>
          <internalNodes>
            0 -1 18 -7.6341563835740089e-03</internalNodes>
          <leafValues>
            8.7272727489471436e-01 -5.1428574323654175e-01</leafValues></_>
        <_>
          <internalNodes>
            0 -1 44 9.9414703436195850e-04</internalNodes>
          <leafValues>
            -5.1580673456192017e-01 7.9659086465835571e-01</leafValues></_>
        <_>
          <internalNodes>
            0 -1 12 -1.0036362800747156e-03</internalNodes>
          <leafValues>
            8.3657562732696533e-01 -4.8952317237854004e-01</leafValues></_></weakClassifiers></_>
    <!-- stage 9 -->
    <_>
      <maxWeakCount>6</maxWeakCount>
      <stageThreshold>-4.3503138422966003e-01</stageThreshold>
      <weakClassifiers>
        <_>
          <internalNodes>
            0 -1 10 -3.3477859105914831e-03</internalNodes>
          <leafValues>
            8.0701756477355957e-01 -4.8484849929809570e-01</leafValues></_>
        <_>
          <internalNodes>
            0 -1 15 -3.1074944417923689e-03</internalNodes>
          <leafValues>
            8.5093021392822266e-01 -4.3190163373947144e-01</leafValues></_>
        <_>
          <internalNodes>
            0 -1 36 -2.1233601728454232e-05</internalNodes>
          <leafValues>
            6.4578413963317871e-01 -5.8758234977722168e-01</leafValues></_>
        <_>
          <internalNodes>
            0 -1 40 -2.4645151570439339e-03</internalNodes>
          <leafValues>
            9.0520268678665161e-01 -4.8452916741371155e-01</leafValues></_>
        <_>
          <internalNodes>
            0 -1 35 6.5680767875164747e-04</internalNodes>
          <leafValues>
            -4.0592065453529358e-01 9.2376875877380371e-01</leafValues></_>
        <_>
          <internalNodes>
            0 -1 20 -1.0424863547086716e-02</internalNodes>
          <leafValues>
            7.8766334056854248e-01 -6.6334742307662964e-01</leafValues></_></weakClassifiers></_>
    <!-- stage 10 -->
    <_>
      <maxWeakCount>4</maxWeakCount>
      <stageThreshold>-5.9441196918487549e-01</stageThreshold>
      <weakClassifiers>
        <_>
          <internalNodes>
            0 -1 2 4.2908077011816204e-04</internalNodes>
          <leafValues>
            -4.2028984427452087e-01 8.0180180072784424e-01</leafValues></_>
        <_>
          <internalNodes>
            0 -1 31 2.4760130327194929e-04</internalNodes>
          <leafValues>
            -4.7412440180778503e-01 8.6953371763229370e-01</leafValues></_>
        <_>
          <internalNodes>
            0 -1 29 -3.3824064303189516e-04</internalNodes>
          <leafValues>
            8.8507896661758423e-01 -4.8843914270401001e-01</leafValues></_>
        <_>
          <internalNodes>
            0 -1 24 -7.1209302404895425e-04</internalNodes>
          <leafValues>
            9.4615179300308228e-01 -4.3365022540092468e-01</leafValues></_></weakClassifiers></_>
    <!-- stage 11 -->
    <_>
      <maxWeakCount>3</maxWeakCount>
      <stageThreshold>-1.7210222780704498e-01</stageThreshold>
      <weakClassifiers>
        <_>
          <internalNodes>
            0 -1 28 -6.7812879569828510e-04</internalNodes>
          <leafValues>
            9.3258428573608398e-01 -2.5274726748466492e-01</leafValues></_>
        <_>
          <internalNodes>
            0 -1 42 9.5738749951124191e-03</internalNodes>
          <leafValues>
            5.6546348333358765e-01 -8.7425637245178223e-01</leafValues></_>
        <_>
          <internalNodes>
            0 -1 16 -2.2399930749088526e-03</internalNodes>
          <leafValues>
            9.7912609577178955e-01 -4.8481842875480652e-01</leafValues></_></weakClassifiers></_>
    <!-- stage 12 -->
    <_>
      <maxWeakCount>4</maxWeakCount>
      <stageThreshold>1.6360063850879669e-01</stageThreshold>
      <weakClassifiers>
        <_>
          <internalNodes>
            0 -1 39 -4.3523171916604042e-03</internalNodes>
          <leafValues>
            9.5555555820465088e-01 -2.8888890147209167e-01</leafValues></_>
        <_>
          <internalNodes>
            0 -1 4 2.2456687875092030e-03</internalNodes>
          <leafValues>
            6.3289862871170044e-01 -8.1606888771057129e-01</leafValues></_>
        <_>
          <internalNodes>
            0 -1 26 4.2180682066828012e-04</internalNodes>
          <leafValues>
            -5.5307561159133911e-01 8.7211096286773682e-01</leafValues></_>
        <_>
          <internalNodes>
            0 -1 25 -1.6546895494684577e-03</internalNodes>
          <leafValues>
            5.7718956470489502e-01 -7.6548051834106445e-01</leafValues></_></weakClassifiers></_>
    <!-- stage 13 -->
    <_>
      <maxWeakCount>4</maxWeakCount>
      <stageThreshold>-5.2825248241424561e-01</stageThreshold>
      <weakClassifiers>
        <_>
          <internalNodes>
            0 -1 48 -1.9691430497914553e-03</internalNodes>
          <leafValues>
            8.0357140302658081e-01 -4.4117647409439087e-01</leafValues></_>
        <_>
          <internalNodes>
            0 -1 38 -2.5590383447706699e-03</internalNodes>
          <leafValues>
            8.3640480041503906e-01 -4.9983185529708862e-01</leafValues></_>
        <_>
          <internalNodes>
            0 -1 6 -8.1983488053083420e-03</internalNodes>
          <leafValues>
            9.7722387313842773e-01 -3.7749838829040527e-01</leafValues></_>
        <_>
          <internalNodes>
            0 -1 47 -5.4861337412148714e-04</internalNodes>
          <leafValues>
            8.6979770660400391e-01 -4.5449367165565491e-01</leafValues></_></weakClassifiers></_>
    <!-- stage 14 -->
    <_>
      <maxWeakCount>5</maxWeakCount>
      <stageThreshold>-5.8400310575962067e-02</stageThreshold>
      <weakClassifiers>
        <_>
          <internalNodes>
            0 -1 33 6.4963020849972963e-04</internalNodes>
          <leafValues>
            -3.9726027846336365e-01 8.3177572488784790e-01</leafValues></_>
        <_>
          <internalNodes>
            0 -1 8 -2.4405934382230043e-03</internalNodes>
          <leafValues>
            7.2765809297561646e-01 -5.9405857324600220e-01</leafValues></_>
        <_>
          <internalNodes>
            0 -1 30 7.2866037953644991e-05</internalNodes>
          <leafValues>
            -5.3202790021896362e-01 7.3171371221542358e-01</leafValues></_>
        <_>
          <internalNodes>
            0 -1 46 1.1443767289165407e-04</internalNodes>
          <leafValues>
            -5.1847124099731445e-01 7.3664385080337524e-01</leafValues></_>
        <_>
          <internalNodes>
            0 -1 41 2.4998700246214867e-04</internalNodes>
          <leafValues>
            -5.0073337554931641e-01 8.5566776990890503e-01</leafValues></_></weakClassifiers></_></stages>
  <features>
    <_>
      <rects>
        <_>
          0 0 54 4 -1.</_>
        <_>
          0 2 54 2 2.</_></rects>
      <tilted>0</tilted></_>
    <_>
      <rects>
        <_>
          0 1 4 42 -1.</_>
        <_>
          2 1 2 42 2.</_></rects>
      <tilted>0</tilted></_>
    <_>
      <rects>
        <_>
          0 3 16 4 -1.</_>
        <_>
          0 3 8 2 2.</_>
        <_>
          8 5 8 2 2.</_></rects>
      <tilted>0</tilted></_>
    <_>
      <rects>
        <_>
          0 16 4 43 -1.</_>
        <_>
          2 16 2 43 2.</_></rects>
      <tilted>0</tilted></_>
    <_>
      <rects>
        <_>
          0 17 7 40 -1.</_>
        <_>
          0 37 7 20 2.</_></rects>
      <tilted>0</tilted></_>
    <_>
      <rects>
        <_>
          0 25 9 33 -1.</_>
        <_>
          3 25 3 33 3.</_></rects>
      <tilted>0</tilted></_>
    <_>
      <rects>
        <_>
          0 27 9 17 -1.</_>
        <_>
          3 27 3 17 3.</_></rects>
      <tilted>0</tilted></_>
    <_>
      <rects>
        <_>
          3 0 57 2 -1.</_>
        <_>
          3 1 57 1 2.</_></rects>
      <tilted>0</tilted></_>
    <_>
      <rects>
        <_>
          3 6 11 8 -1.</_>
        <_>
          3 10 11 4 2.</_></rects>
      <tilted>0</tilted></_>
    <_>
      <rects>
        <_>
          4 4 17 9 -1.</_>
        <_>
          4 7 17 3 3.</_></rects>
      <tilted>0</tilted></_>
    <_>
      <rects>
        <_>
          4 7 13 8 -1.</_>
        <_>
          4 11 13 4 2.</_></rects>
      <tilted>0</tilted></_>
    <_>
      <rects>
        <_>
          5 24 9 36 -1.</_>
        <_>
          5 42 9 18 2.</_></rects>
      <tilted>0</tilted></_>
    <_>
      <rects>
        <_>
          6 20 11 6 -1.</_>
        <_>
          6 22 11 2 3.</_></rects>
      <tilted>0</tilted></_>
    <_>
      <rects>
        <_>
          7 0 47 4 -1.</_>
        <_>
          7 2 47 2 2.</_></rects>
      <tilted>0</tilted></_>
    <_>
      <rects>
        <_>
          7 4 17 9 -1.</_>
        <_>
          7 7 17 3 3.</_></rects>
      <tilted>0</tilted></_>
    <_>
      <rects>
        <_>
          7 21 9 23 -1.</_>
        <_>
          10 21 3 23 3.</_></rects>
      <tilted>0</tilted></_>
    <_>
      <rects>
        <_>
          8 2 6 13 -1.</_>
        <_>
          10 2 2 13 3.</_></rects>
      <tilted>0</tilted></_>
    <_>
      <rects>
        <_>
          8 39 49 9 -1.</_>
        <_>
          8 42 49 3 3.</_></rects>
      <tilted>0</tilted></_>
    <_>
      <rects>
        <_>
          10 16 48 15 -1.</_>
        <_>
          10 21 48 5 3.</_></rects>
      <tilted>0</tilted></_>
    <_>
      <rects>
        <_>
          11 10 12 6 -1.</_>
        <_>
          11 12 12 2 3.</_></rects>
      <tilted>0</tilted></_>
    <_>
      <rects>
        <_>
          13 0 42 6 -1.</_>
        <_>
          13 3 42 3 2.</_></rects>
      <tilted>0</tilted></_>
    <_>
      <rects>
        <_>
          14 4 9 2 -1.</_>
        <_>
          14 5 9 1 2.</_></rects>
      <tilted>0</tilted></_>
    <_>
      <rects>
        <_>
          16 47 37 9 -1.</_>
        <_>
          16 50 37 3 3.</_></rects>
      <tilted>0</tilted></_>
    <_>
      <rects>
        <_>
          17 13 3 9 -1.</_>
        <_>
          17 16 3 3 3.</_></rects>
      <tilted>0</tilted></_>
    <_>
      <rects>
        <_>
          17 29 3 9 -1.</_>
        <_>
          17 32 3 3 3.</_></rects>
      <tilted>0</tilted></_>
    <_>
      <rects>
        <_>
          20 17 20 39 -1.</_>
        <_>
          20 30 20 13 3.</_></rects>
      <tilted>0</tilted></_>
    <_>
      <rects>
        <_>
          20 45 27 3 -1.</_>
        <_>
          20 46 27 1 3.</_></rects>
      <tilted>0</tilted></_>
    <_>
      <rects>
        <_>
          21 27 32 12 -1.</_>
        <_>
          21 31 32 4 3.</_></rects>
      <tilted>0</tilted></_>
    <_>
      <rects>
        <_>
          23 29 5 9 -1.</_>
        <_>
          23 32 5 3 3.</_></rects>
      <tilted>0</tilted></_>
    <_>
      <rects>
        <_>
          26 57 12 4 -1.</_>
        <_>
          30 57 4 4 3.</_></rects>
      <tilted>0</tilted></_>
    <_>
      <rects>
        <_>
          29 9 9 3 -1.</_>
        <_>
          29 10 9 1 3.</_></rects>
      <tilted>0</tilted></_>
    <_>
      <rects>
        <_>
          34 14 6 4 -1.</_>
        <_>
          34 16 6 2 2.</_></rects>
      <tilted>0</tilted></_>
    <_>
      <rects>
        <_>
          35 53 14 6 -1.</_>
        <_>
          35 55 14 2 3.</_></rects>
      <tilted>0</tilted></_>
    <_>
      <rects>
        <_>
          40 54 15 6 -1.</_>
        <_>
          40 56 15 2 3.</_></rects>
      <tilted>0</tilted></_>
    <_>
      <rects>
        <_>
          41 50 22 6 -1.</_>
        <_>
          41 52 22 2 3.</_></rects>
      <tilted>0</tilted></_>
    <_>
      <rects>
        <_>
          41 55 6 6 -1.</_>
        <_>
          41 57 6 2 3.</_></rects>
      <tilted>0</tilted></_>
    <_>
      <rects>
        <_>
          42 61 16 3 -1.</_>
        <_>
          50 61 8 3 2.</_></rects>
      <tilted>0</tilted></_>
    <_>
      <rects>
        <_>
          44 7 10 3 -1.</_>
        <_>
          44 8 10 1 3.</_></rects>
      <tilted>0</tilted></_>
    <_>
      <rects>
        <_>
          44 23 8 18 -1.</_>
        <_>
          44 29 8 6 3.</_></rects>
      <tilted>0</tilted></_>
    <_>
      <rects>
        <_>
          47 5 12 11 -1.</_>
        <_>
          51 5 4 11 3.</_></rects>
      <tilted>0</tilted></_>
    <_>
      <rects>
        <_>
          47 9 10 9 -1.</_>
        <_>
          47 12 10 3 3.</_></rects>
      <tilted>0</tilted></_>
    <_>
      <rects>
        <_>
          48 44 8 6 -1.</_>
        <_>
          48 44 4 3 2.</_>
        <_>
          52 47 4 3 2.</_></rects>
      <tilted>0</tilted></_>
    <_>
      <rects>
        <_>
          50 8 11 27 -1.</_>
        <_>
          50 17 11 9 3.</_></rects>
      <tilted>0</tilted></_>
    <_>
      <rects>
        <_>
          53 5 9 31 -1.</_>
        <_>
          56 5 3 31 3.</_></rects>
      <tilted>0</tilted></_>
    <_>
      <rects>
        <_>
          53 25 6 24 -1.</_>
        <_>
          55 25 2 24 3.</_></rects>
      <tilted>0</tilted></_>
    <_>
      <rects>
        <_>
          53 44 11 18 -1.</_>
        <_>
          53 53 11 9 2.</_></rects>
      <tilted>0</tilted></_>
    <_>
      <rects>
        <_>
          55 17 8 8 -1.</_>
        <_>
          55 17 4 4 2.</_>
        <_>
          59 21 4 4 2.</_></rects>
      <tilted>0</tilted></_>
    <_>
      <rects>
        <_>
          56 29 6 2 -1.</_>
        <_>
          58 29 2 2 3.</_></rects>
      <tilted>0</tilted></_>
    <_>
      <rects>
        <_>
          57 0 4 32 -1.</_>
        <_>
          59 0 2 32 2.</_></rects>
      <tilted>0</tilted></_>
    <_>
      <rects>
        <_>
          57 14 4 18 -1.</_>
        <_>
          59 14 2 18 2.</_></rects>
      <tilted>0</tilted></_>
    <_>
      <rects>
        <_>
          57 30 6 11 -1.</_>
        <_>
          59 30 2 11 3.</_></rects>
      <tilted>0</tilted></_>
    <_>
      <rects>
        <_>
          58 3 6 19 -1.</_>
        <_>
          60 3 2 19 3.</_></rects>
      <tilted>0</tilted></_>
    <_>
      <rects>
        <_>
          58 9 6 19 -1.</_>
        <_>
          60 9 2 19 3.</_></rects>
      <tilted>0</tilted></_></features></cascade>
</opencv_storage>
